<?xml version="1.0"?>
<opencv_storage>
<cascade>
  <stageType>BOOST</stageType>
  <featureType>LBP</featureType>
  <height>13</height>
  <width>13</width>
  <stageParams>
    <boostType>GAB</boostType>
    <minHitRate>9.9500000476837158e-01</minHitRate>
    <maxFalseAlarm>5.0000000000000000e-01</maxFalseAlarm>
    <weightTrimRate>9.4999998807907104e-01</weightTrimRate>
    <maxDepth>1</maxDepth>
    <maxWeakCount>100</maxWeakCount></stageParams>
  <featureParams>
    <maxCatCount>256</maxCatCount>
    <featSize>1</featSize></featureParams>
  <stageNum>15</stageNum>
  <stages>
    <!-- stage 0 -->
    <_>
      <maxWeakCount>3</maxWeakCount>
      <stageThreshold>-1.1872720718383789e+00</stageThreshold>
      <weakClassifiers>
        <_>
          <internalNodes>
            0 -1 14 -65538 -65537 -196612 -196612 -1 -4097 -65538
            -196610</internalNodes>
          <leafValues>
            -9.5801454782485962e-01 5.7293665409088135e-01</leafValues></_>
        <_>
          <internalNodes>
            0 -1 92 -8421611 -641 -129 -129 -169 -3093 -129 -129</internalNodes>
          <leafValues>
            -7.8614401817321777e-01 6.8414384126663208e-01</leafValues></_>
        <_>
          <internalNodes>
            0 -1 20 -1114113 -16842754 -1116162 -26017814 -1 -458761
            -65537 -5177488</internalNodes>
          <leafValues>
            -7.6825445890426636e-01 5.5688643455505371e-01</leafValues></_></weakClassifiers></_>
    <!-- stage 1 -->
    <_>
      <maxWeakCount>3</maxWeakCount>
      <stageThreshold>-1.3097590208053589e+00</stageThreshold>
      <weakClassifiers>
        <_>
          <internalNodes>
            0 -1 7 -271651122 -1025 1724841471 -538976257 -263169
            -263173 -67371009 -1</internalNodes>
          <leafValues>
            -8.9465379714965820e-01 4.8617732524871826e-01</leafValues></_>
        <_>
          <internalNodes>
            0 -1 94 -16 -285729 -887905601 -527873 -134479884 -83113473
            -135791620 -1</internalNodes>
          <leafValues>
            -8.0003994703292847e-01 4.4189298152923584e-01</leafValues></_>
        <_>
          <internalNodes>
            0 -1 68 -134221056 -3173889 -242394209 -1088479257
            -705955841 -268713217 -1079510085 -1342187617</internalNodes>
          <leafValues>
            -7.2341907024383545e-01 3.8493469357490540e-01</leafValues></_></weakClassifiers></_>
    <!-- stage 2 -->
    <_>
      <maxWeakCount>6</maxWeakCount>
      <stageThreshold>-1.8257452249526978e+00</stageThreshold>
      <weakClassifiers>
        <_>
          <internalNodes>
            0 -1 12 -4370 -2099745 -37879809 -539402785 -2098177
            -4461573 -3425281 -272634129</internalNodes>
          <leafValues>
            -7.6326829195022583e-01 4.4685351848602295e-01</leafValues></_>
        <_>
          <internalNodes>
            0 -1 100 -1 -279633 -67633164 -136971425 -4 -142563 -140036
            -33685506</internalNodes>
          <leafValues>
            -6.3900631666183472e-01 5.7020103931427002e-01</leafValues></_>
        <_>
          <internalNodes>
            0 -1 42 -1 -35718436 -9502722 -536936450 -67108865 -34540036
            -65538 1945140218</internalNodes>
          <leafValues>
            -6.9924873113632202e-01 4.2467924952507019e-01</leafValues></_>
        <_>
          <internalNodes>
            0 -1 3 -286331154 -428937474 -1075838981 -974756913
            -270536705 -166736946 -268500993 -890908673</internalNodes>
          <leafValues>
            -6.9843739271163940e-01 3.5886001586914063e-01</leafValues></_>
        <_>
          <internalNodes>
            0 -1 112 -201331958 -33 -1183265365 1061158527 -268454144
            -243269777 -806100342 -209715201</internalNodes>
          <leafValues>
            -4.8709383606910706e-01 5.4834288358688354e-01</leafValues></_>
        <_>
          <internalNodes>
            0 -1 62 2128576476 1072561150 -41443844 787071740 -132100
            -564883368 -36962312 687730328</internalNodes>
          <leafValues>
            -6.7223668098449707e-01 3.3738133311271667e-01</leafValues></_></weakClassifiers></_>
    <!-- stage 3 -->
    <_>
      <maxWeakCount>7</maxWeakCount>
      <stageThreshold>-1.4728853702545166e+00</stageThreshold>
      <weakClassifiers>
        <_>
          <internalNodes>
            0 -1 92 -169 -35653633 -70584609 -572523649 -603979777
            -657793793 -73400321 -1</internalNodes>
          <leafValues>
            -6.4147466421127319e-01 6.1016333103179932e-01</leafValues></_>
        <_>
          <internalNodes>
            0 -1 13 -808452114 -540032037 -322113652 -271589410
            -67108865 -30470 -604242945 -1</internalNodes>
          <leafValues>
            -7.1014565229415894e-01 4.0848970413208008e-01</leafValues></_>
        <_>
          <internalNodes>
            0 -1 103 -268435457 -1463034385 -706281985 -1895900673
            -924909666 -2007254642 -925045812 150589327</internalNodes>
          <leafValues>
            -6.2295484542846680e-01 3.5679832100868225e-01</leafValues></_>
        <_>
          <internalNodes>
            0 -1 4 -823218514 -270600194 -682107427 -270961977 -1025
            -2099499 -513 -855772161</internalNodes>
          <leafValues>
            -6.5417981147766113e-01 3.1971123814582825e-01</leafValues></_>
        <_>
          <internalNodes>
            0 -1 99 -69468208 -215225457 1672340228 -205548818 -3408900
            -251547091 -77203056 -50594853</internalNodes>
          <leafValues>
            -5.7667702436447144e-01 3.8777548074722290e-01</leafValues></_>
        <_>
          <internalNodes>
            0 -1 45 937310207 -570700417 -1056139941 1061174623
            -61117761 -82352032 -16516097 2003924831</internalNodes>
          <leafValues>
            -5.0779277086257935e-01 4.3074315786361694e-01</leafValues></_>
        <_>
          <internalNodes>
            0 -1 40 -825310482 -590683922 -1069273910 2017651338
            -933523280 542380102 -1026767660 1901577302</internalNodes>
          <leafValues>
            -6.3007831573486328e-01 3.2205039262771606e-01</leafValues></_></weakClassifiers></_>
    <!-- stage 4 -->
    <_>
      <maxWeakCount>8</maxWeakCount>
      <stageThreshold>-1.8387084007263184e+00</stageThreshold>
      <weakClassifiers>
        <_>
          <internalNodes>
            0 -1 93 -8388864 -269317 -573842433 -264453 -67109040
            -474227993 -287311109 -16778497</internalNodes>
          <leafValues>
            -8.6274510622024536e-01 1.2032898515462875e-01</leafValues></_>
        <_>
          <internalNodes>
            0 -1 10 -65794 -74274 -69336614 -33762850 -77608289
            -69402401 -355499809 -655617</internalNodes>
          <leafValues>
            -6.6122287511825562e-01 3.0387055873870850e-01</leafValues></_>
        <_>
          <internalNodes>
            0 -1 56 -201984254 -34087489 1466823293 -1189094951
            -556025345 -84223585 -71566337 1794833327</internalNodes>
          <leafValues>
            -6.1920398473739624e-01 3.5577571392059326e-01</leafValues></_>
        <_>
          <internalNodes>
            0 -1 75 1977352191 530054621 -583811107 -1116864513
            -38339667 -5533318 -1096962392 150862298</internalNodes>
          <leafValues>
            -4.7747355699539185e-01 4.3483313918113708e-01</leafValues></_>
        <_>
          <internalNodes>
            0 -1 34 -134217730 -1286143190 -5898244 -14545 -2105830657
            -1711144447 -611450882 -83890385</internalNodes>
          <leafValues>
            -5.3103590011596680e-01 3.1738081574440002e-01</leafValues></_>
        <_>
          <internalNodes>
            0 -1 44 -545310117 -67684074 -749282731 -3361 1586237456
            -224371696 -752718815 2136305191</internalNodes>
          <leafValues>
            -4.9666005373001099e-01 3.6509054899215698e-01</leafValues></_>
        <_>
          <internalNodes>
            0 -1 4 -286331186 -796336 -242556417 -380216373 -342097925
            -360540149 -10454817 -859245117</internalNodes>
          <leafValues>
            -6.0772699117660522e-01 2.5505492091178894e-01</leafValues></_>
        <_>
          <internalNodes>
            0 -1 114 -126 -1140883531 1941688066 1072685050 -21102720
            -402653187 -1046036566 1420819903</internalNodes>
          <leafValues>
            -3.6480277776718140e-01 4.5930632948875427e-01</leafValues></_></weakClassifiers></_>
    <!-- stage 5 -->
    <_>
      <maxWeakCount>9</maxWeakCount>
      <stageThreshold>-1.4423369169235229e+00</stageThreshold>
      <weakClassifiers>
        <_>
          <internalNodes>
            0 -1 92 -233 -538970145 -101318913 -272417 -545 -1612973829
            -67241217 -1953</internalNodes>
          <leafValues>
            -6.5977174043655396e-01 3.2950505614280701e-01</leafValues></_>
        <_>
          <internalNodes>
            0 -1 36 -355473718 -890314010 -105774369 -101751646
            -150219845 -281353846 -612107297 -536878337</internalNodes>
          <leafValues>
            -5.0045734643936157e-01 4.5829239487648010e-01</leafValues></_>
        <_>
          <internalNodes>
            0 -1 24 -740368385 -2197510 -655168514 -304029700 563022335
            -273659746 -6439938 2138078838</internalNodes>
          <leafValues>
            -7.1752816438674927e-01 2.4168349802494049e-01</leafValues></_>
        <_>
          <internalNodes>
            0 -1 115 -214435920 -1693613933 1075110800 -208577600
            -615515152 -97843192 -114037968 1865673727</internalNodes>
          <leafValues>
            -5.6415009498596191e-01 3.0730551481246948e-01</leafValues></_>
        <_>
          <internalNodes>
            0 -1 32 -966333714 -69484065 714137590 1931247071 -68616277
            -1394548167 563785711 1291845595</internalNodes>
          <leafValues>
            -6.0282868146896362e-01 2.8265976905822754e-01</leafValues></_>
        <_>
          <internalNodes>
            0 -1 29 2144827255 1441781564 -1627203329 -1123038209
            -148953545 -637984395 -24740545 2138406259</internalNodes>
          <leafValues>
            -4.8093023896217346e-01 3.0941402912139893e-01</leafValues></_>
        <_>
          <internalNodes>
            0 -1 80 -6851664 1795511202 288429332 -43936186 -211026372
            1902217232 -1148813398 -7372865</internalNodes>
          <leafValues>
            -3.9824411273002625e-01 3.7216970324516296e-01</leafValues></_>
        <_>
          <internalNodes>
            0 -1 95 -253820928 -68410633 1364286173 -1076151329
            -1063184482 -23592773 -1035947843 -1411268674</internalNodes>
          <leafValues>
            -4.8024499416351318e-01 3.3402776718139648e-01</leafValues></_>
        <_>
          <internalNodes>
            0 -1 66 -744521070 -795041662 1900927479 -1429437986
            -5005569 -609265520 1065483989 749638447</internalNodes>
          <leafValues>
            -3.7242403626441956e-01 3.8093188405036926e-01</leafValues></_></weakClassifiers></_>
    <!-- stage 6 -->
    <_>
      <maxWeakCount>8</maxWeakCount>
      <stageThreshold>-1.7478090524673462e+00</stageThreshold>
      <weakClassifiers>
        <_>
          <internalNodes>
            0 -1 15 -355471617 -286349586 -39857153 -2161985 -6030401
            -1314049 -114704385 -22817</internalNodes>
          <leafValues>
            -6.4846348762512207e-01 1.9682386517524719e-01</leafValues></_>
        <_>
          <internalNodes>
            0 -1 101 -144704513 -235949137 -37235203 -1395802323
            -69730884 -822546451 -589439524 -1929510948</internalNodes>
          <leafValues>
            -6.0809195041656494e-01 3.1625714898109436e-01</leafValues></_>
        <_>
          <internalNodes>
            0 -1 112 -234890485 -2098689 -1999561445 -10499489 -12585216
            -133576667 -440673650 -1048885</internalNodes>
          <leafValues>
            -4.2981687188148499e-01 4.0185672044754028e-01</leafValues></_>
        <_>
          <internalNodes>
            0 -1 19 -134232833 2010175948 541629917 -148834484 -68427025
            -1153121639 -744986036 2134946576</internalNodes>
          <leafValues>
            -5.8591848611831665e-01 3.0664047598838806e-01</leafValues></_>
        <_>
          <internalNodes>
            0 -1 68 -134514944 -378667074 -623706977 -1644299526
            -154272257 -655836727 -1125791233 -1627850257</internalNodes>
          <leafValues>
            -6.5053820610046387e-01 2.0386281609535217e-01</leafValues></_>
        <_>
          <internalNodes>
            0 -1 41 -84940034 -822722150 -2141153186 -788729250
            -1697653562 1386238464 -763053565 -212337517</internalNodes>
          <leafValues>
            -4.2683759331703186e-01 3.3853164315223694e-01</leafValues></_>
        <_>
          <internalNodes>
            0 -1 125 -572919517 -2733787 -2130479743 448819222
            -629937920 -1444513776 -27282550 -215506277</internalNodes>
          <leafValues>
            -4.1347897052764893e-01 3.2255917787551880e-01</leafValues></_>
        <_>
          <internalNodes>
            0 -1 5 -959517970 -825825477 -290006597 -1496393145
            -134498405 -342130653 -1416891685 -1879182410</internalNodes>
          <leafValues>
            -8.0664026737213135e-01 1.9842848181724548e-01</leafValues></_></weakClassifiers></_>
    <!-- stage 7 -->
    <_>
      <maxWeakCount>11</maxWeakCount>
      <stageThreshold>-1.5646978616714478e+00</stageThreshold>
      <weakClassifiers>
        <_>
          <internalNodes>
            0 -1 63 1603491839 1576947964 1503549405 2138332124
            -1053950466 -68147512 -6308930 1006254762</internalNodes>
          <leafValues>
            -6.4511340856552124e-01 1.2049252539873123e-01</leafValues></_>
        <_>
          <internalNodes>
            0 -1 110 -144984832 -68688897 -700188201 -104349969
            -1188578529 2030275155 1934360287 1929899883</internalNodes>
          <leafValues>
            -6.1806774139404297e-01 2.0025199651718140e-01</leafValues></_>
        <_>
          <internalNodes>
            0 -1 39 -162609458 -556898098 -1563686684 -792017202
            -669300289 309035723 130105566 1935624495</internalNodes>
          <leafValues>
            -4.8712003231048584e-01 2.7709317207336426e-01</leafValues></_>
        <_>
          <internalNodes>
            0 -1 61 -579699713 -741998369 273712094 -79276650 -657966914
            -803989304 -1692233510 991043066</internalNodes>
          <leafValues>
            -4.6788850426673889e-01 2.9202529788017273e-01</leafValues></_>
        <_>
          <internalNodes>
            0 -1 11 -835780609 -16859393 1073692671 1598013419 -1
            -16781313 -1073754117 -84475907</internalNodes>
          <leafValues>
            -2.8910455107688904e-01 4.6327614784240723e-01</leafValues></_>
        <_>
          <internalNodes>
            0 -1 51 -33641746 1525612286 1023078134 -73765658 1492567260
            -790200484 -1896560930 -1219802101</internalNodes>
          <leafValues>
            -3.1382644176483154e-01 4.0945002436637878e-01</leafValues></_>
        <_>
          <internalNodes>
            0 -1 72 52664316 -611638637 1125479420 -1858239665
            -1146900492 463600398 -2491524 -1359151108</internalNodes>
          <leafValues>
            -7.2888565063476563e-01 1.5686003863811493e-01</leafValues></_>
        <_>
          <internalNodes>
            0 -1 84 -791281615 1532696023 352931679 526295262
            -1143292487 638261392 -1756308993 67897487</internalNodes>
          <leafValues>
            -5.2281028032302856e-01 2.2644969820976257e-01</leafValues></_>
        <_>
          <internalNodes>
            0 -1 28 461473496 -205010472 1896061147 -174072869 324602416
            -326426048 1979785985 1998537488</internalNodes>
          <leafValues>
            -5.0746178627014160e-01 2.4039734899997711e-01</leafValues></_>
        <_>
          <internalNodes>
            0 -1 82 2147237789 2063366128 2147417724 2146189244
            2113199996 1194639356 1465157116 -1140899910</internalNodes>
          <leafValues>
            -3.1054899096488953e-01 4.0968865156173706e-01</leafValues></_>
        <_>
          <internalNodes>
            0 -1 104 -204242944 -891332866 293691866 -246560897
            -1152417536 -894801783 555987450 2001465339</internalNodes>
          <leafValues>
            -5.1482909917831421e-01 2.2975885868072510e-01</leafValues></_></weakClassifiers></_>
    <!-- stage 8 -->
    <_>
      <maxWeakCount>11</maxWeakCount>
      <stageThreshold>-1.3765643835067749e+00</stageThreshold>
      <weakClassifiers>
        <_>
          <internalNodes>
            0 -1 2 -421009409 -11545964 -44993133 -697515 -2360869
            -6172245 -544882725 -542114149</internalNodes>
          <leafValues>
            -5.3271657228469849e-01 2.0240963995456696e-01</leafValues></_>
        <_>
          <internalNodes>
            0 -1 113 -144704768 -748696598 1075495176 -849478938
            -480402688 -1744076699 958446354 862190507</internalNodes>
          <leafValues>
            -6.4697510004043579e-01 2.1075011789798737e-01</leafValues></_>
        <_>
          <internalNodes>
            0 -1 105 -11021184 -152043779 572662048 1396440958
            -1241923448 -545259681 -1865358166 -1285033025</internalNodes>
          <leafValues>
            -3.3836129307746887e-01 4.5092114806175232e-01</leafValues></_>
        <_>
          <internalNodes>
            0 -1 91 -1798843939 -1898592809 -753609251 -1932472099
            -83772691 -1467610631 -1110710116 4729484</internalNodes>
          <leafValues>
            -6.0174727439880371e-01 2.7567040920257568e-01</leafValues></_>
        <_>
          <internalNodes>
            0 -1 52 -207695138 -526622316 -1877946134 -262930194
            -939495284 1074790589 -669628342 -78414594</internalNodes>
          <leafValues>
            -3.8642328977584839e-01 3.5831621289253235e-01</leafValues></_>
        <_>
          <internalNodes>
            0 -1 70 -50594048 -645941123 -2145824641 1536808025
            -625430331 -662118151 42483102 2017122332</internalNodes>
          <leafValues>
            -5.5910724401473999e-01 2.4226860702037811e-01</leafValues></_>
        <_>
          <internalNodes>
            0 -1 38 -388308338 -556870450 1076290666 -15908672 558596259
            1510723720 1385566967 -207621897</internalNodes>
          <leafValues>
            -3.4953391551971436e-01 3.8333520293235779e-01</leafValues></_>
        <_>
          <internalNodes>
            0 -1 118 -34624624 -712628445 -754286224 -258448684
            -245792048 1276150407 -104023376 -1042026085</internalNodes>
          <leafValues>
            -3.7548363208770752e-01 3.5690596699714661e-01</leafValues></_>
        <_>
          <internalNodes>
            0 -1 88 1473574840 -674709348 1076236680 -611276872
            453572440 1392894977 422639112 1069224430</internalNodes>
          <leafValues>
            -4.0750774741172791e-01 3.4873494505882263e-01</leafValues></_>
        <_>
          <internalNodes>
            0 -1 40 -151073570 -733296482 1409302730 -19380002
            -531894114 5638408 -124995308 1936163999</internalNodes>
          <leafValues>
            -4.7216743230819702e-01 2.7910551428794861e-01</leafValues></_>
        <_>
          <internalNodes>
            0 -1 45 1397912063 -858246906 23140735 356932076 -85316996
            -1412081100 1259764159 2131841151</internalNodes>
          <leafValues>
            -5.0086277723312378e-01 2.7934846282005310e-01</leafValues></_></weakClassifiers></_>
    <!-- stage 9 -->
    <_>
      <maxWeakCount>13</maxWeakCount>
      <stageThreshold>-1.8362321853637695e+00</stageThreshold>
      <weakClassifiers>
        <_>
          <internalNodes>
            0 -1 76 -793542477 -3963760 272996767 -179883555 -78595905
            -360169207 -1175866373 -25601</internalNodes>
          <leafValues>
            -4.7068819403648376e-01 3.7630504369735718e-01</leafValues></_>
        <_>
          <internalNodes>
            0 -1 55 -1969059678 -175087276 428000511 1909036500
            -1748370706 -538795840 -1735525973 730831087</internalNodes>
          <leafValues>
            -5.3318595886230469e-01 2.4810038506984711e-01</leafValues></_>
        <_>
          <internalNodes>
            0 -1 127 -201329729 1570439851 -2147446768 -528418627
            2106441404 -580083583 -475158292 1557986760</internalNodes>
          <leafValues>
            -5.6619054079055786e-01 2.4194145202636719e-01</leafValues></_>
        <_>
          <internalNodes>
            0 -1 64 1346762239 898453717 -586821667 1023399391
            -1190571592 -593431244 -1173758498 706519230</internalNodes>
          <leafValues>
            -3.9177429676055908e-01 3.4729906916618347e-01</leafValues></_>
        <_>
          <internalNodes>
            0 -1 50 -234173720 4215238 1950351976 -179854272 -230495612
            143294742 -502752561 1169114222</internalNodes>
          <leafValues>
            -4.4340452551841736e-01 2.8601959347724915e-01</leafValues></_>
        <_>
          <internalNodes>
            0 -1 117 -639646320 1266800771 9913104 -248673277 -183764316
            572096720 1756099472 -945032229</internalNodes>
          <leafValues>
            -3.8911667466163635e-01 3.2740187644958496e-01</leafValues></_>
        <_>
          <internalNodes>
            0 -1 9 -835794226 1122895050 -1725968047 1327453850
            -69207173 -552779647 -574621285 1199545870</internalNodes>
          <leafValues>
            -6.6838216781616211e-01 1.6539533436298370e-01</leafValues></_>
        <_>
          <internalNodes>
            0 -1 97 -227372928 -135184526 52752047 -1048969349
            -1526816632 -973082627 -1565217798 -2082324593</internalNodes>
          <leafValues>
            -3.3119666576385498e-01 4.0880212187767029e-01</leafValues></_>
        <_>
          <internalNodes>
            0 -1 107 -616310336 823369787 1091092544 -1735405553
            -645461624 1923752226 -1585318006 1911911147</internalNodes>
          <leafValues>
            -3.5522183775901794e-01 3.5007736086845398e-01</leafValues></_>
        <_>
          <internalNodes>
            0 -1 21 -251683081 -251861778 1425537708 -239866134
            -721423201 77920244 1067353212 -146027798</internalNodes>
          <leafValues>
            -2.2957503795623779e-01 5.4044502973556519e-01</leafValues></_>
        <_>
          <internalNodes>
            0 -1 37 1918891964 -1176678278 1803942664 -1075060131
            539209868 987767305 -335938658 -19942513</internalNodes>
          <leafValues>
            -4.7340723872184753e-01 3.0210873484611511e-01</leafValues></_>
        <_>
          <internalNodes>
            0 -1 89 319280103 931741969 1499909556 -1655614563
            -1744569435 -1206283872 -1122238488 234617311</internalNodes>
          <leafValues>
            -4.0802064538002014e-01 3.0390059947967529e-01</leafValues></_>
        <_>
          <internalNodes>
            0 -1 119 -1286169863 -1563688758 14803422 215406650
            -354358676 34603018 -567413766 80656782</internalNodes>
          <leafValues>
            -4.8007938265800476e-01 2.8234779834747314e-01</leafValues></_></weakClassifiers></_>
    <!-- stage 10 -->
    <_>
      <maxWeakCount>13</maxWeakCount>
      <stageThreshold>-1.3825113773345947e+00</stageThreshold>
      <weakClassifiers>
        <_>
          <internalNodes>
            0 -1 85 -572523179 -606386433 -108134401 -576857123
            -222694503 -71694182 -1850099205 -49555238</internalNodes>
          <leafValues>
            -5.1792627573013306e-01 1.7509025335311890e-01</leafValues></_>
        <_>
          <internalNodes>
            0 -1 10 -19105058 -184665378 -2058464978 -17891586
            1607139599 -572742758 -243069157 -732166</internalNodes>
          <leafValues>
            -7.7367287874221802e-01 1.4544141292572021e-01</leafValues></_>
        <_>
          <internalNodes>
            0 -1 83 987576799 -78630724 293558621 1610423036 723559148
            600320648 2074880506 1002373786</internalNodes>
          <leafValues>
            -3.8396152853965759e-01 3.0187955498695374e-01</leafValues></_>
        <_>
          <internalNodes>
            0 -1 60 -588370690 1550380718 1039990526 -942637126
            1155286254 83131484 -545497910 -40994</internalNodes>
          <leafValues>
            -2.9583925008773804e-01 4.2651185393333435e-01</leafValues></_>
        <_>
          <internalNodes>
            0 -1 112 -237516278 -379883331 1183657 1431824541 -472403968
            -939089839 1233369066 -1282954609</internalNodes>
          <leafValues>
            -4.1579037904739380e-01 3.0581042170524597e-01</leafValues></_>
        <_>
          <internalNodes>
            0 -1 43 -1827171336 1607734104 1129926076 -44186212
            -1819701516 2107181208 -1415848962 2062473886</internalNodes>
          <leafValues>
            -4.9579355120658875e-01 2.4044367671012878e-01</leafValues></_>
        <_>
          <internalNodes>
            0 -1 47 -526341462 -223737790 -1820076577 -5015614 -25116956
            -896872040 -71245153 -681881221</internalNodes>
          <leafValues>
            -3.4719815850257874e-01 3.4479627013206482e-01</leafValues></_>
        <_>
          <internalNodes>
            0 -1 67 -112108783 902908125 -687744641 206410524 -640367173
            -1314354948 -228269537 707506476</internalNodes>
          <leafValues>
            -4.0189567208290100e-01 2.9686072468757629e-01</leafValues></_>
        <_>
          <internalNodes>
            0 -1 23 -749866807 -151253292 621224154 1908169949
            -1496401435 1372874501 -552068539 2068124480</internalNodes>
          <leafValues>
            -5.3259426355361938e-01 2.0175553858280182e-01</leafValues></_>
        <_>
          <internalNodes>
            0 -1 98 -138748720 -1838531603 -469739268 -1828377000
            -453779032 -1761837083 -1576959318 -1322037394</internalNodes>
          <leafValues>
            -2.5970456004142761e-01 4.1546729207038879e-01</leafValues></_>
        <_>
          <internalNodes>
            0 -1 116 -246678752 561303697 1485166336 -980956615
            -612371680 538003554 -1282425984 669512355</internalNodes>
          <leafValues>
            -5.8195817470550537e-01 1.8375587463378906e-01</leafValues></_>
        <_>
          <internalNodes>
            0 -1 53 -1982171908 -662435499 406992222 1972375916
            -1290260160 -212574206 270957602 2131917642</internalNodes>
          <leafValues>
            -5.0064814090728760e-01 2.0878903567790985e-01</leafValues></_>
        <_>
          <internalNodes>
            0 -1 69 -527794000 -607059808 -1186639397 -712168383
            -11560209 -1733271543 2143619741 -1343284581</internalNodes>
          <leafValues>
            -3.1098875403404236e-01 3.7472799420356750e-01</leafValues></_></weakClassifiers></_>
    <!-- stage 11 -->
    <_>
      <maxWeakCount>15</maxWeakCount>
      <stageThreshold>-1.4455590248107910e+00</stageThreshold>
      <weakClassifiers>
        <_>
          <internalNodes>
            0 -1 92 -67119357 -83899649 -16843777 -3159809 -880017833
            -1364419393 -17042433 -16831761</internalNodes>
          <leafValues>
            -6.6078835725784302e-01 9.7984839230775833e-03</leafValues></_>
        <_>
          <internalNodes>
            0 -1 19 -705691649 2113732062 -1827405746 1022153420
            -25302113 -145163363 -520830748 -145440972</internalNodes>
          <leafValues>
            -5.0625735521316528e-01 2.2213354706764221e-01</leafValues></_>
        <_>
          <internalNodes>
            0 -1 77 -805265248 -612418689 -212635657 -606748737 -131073
            -285212673 -1342308929 -1346552387</internalNodes>
          <leafValues>
            -2.9033428430557251e-01 3.7594220042228699e-01</leafValues></_>
        <_>
          <internalNodes>
            0 -1 120 -145492222 2079784862 -839057421 -143147145
            -950552613 -578814089 -1619525773 -193880816</internalNodes>
          <leafValues>
            -3.1916901469230652e-01 3.6868295073509216e-01</leafValues></_>
        <_>
          <internalNodes>
            0 -1 54 -741311625 -622263540 -50216087 366819300
            -1288229007 -1443802285 -1170181483 2003530027</internalNodes>
          <leafValues>
            -3.6335447430610657e-01 2.8995573520660400e-01</leafValues></_>
        <_>
          <internalNodes>
            0 -1 81 -774319116 55374556 -1576922304 587996380
            -1316700020 15246073 -1853073924 -1376016706</internalNodes>
          <leafValues>
            -3.1901934742927551e-01 3.3478257060050964e-01</leafValues></_>
        <_>
          <internalNodes>
            0 -1 17 -970821890 -288691506 -1543502320 -891392274
            856138027 -1346592348 1566220699 1314646747</internalNodes>
          <leafValues>
            -7.2889322042465210e-01 1.2389520555734634e-01</leafValues></_>
        <_>
          <internalNodes>
            0 -1 103 -1999134795 251319293 -705112643 250404831
            -893591364 -1373820709 -858849316 143178888</internalNodes>
          <leafValues>
            -5.8761465549468994e-01 1.5980702638626099e-01</leafValues></_>
        <_>
          <internalNodes>
            0 -1 104 -210575296 -552090901 558993899 -790785317
            -1478777728 -1407139654 537240250 -890509073</internalNodes>
          <leafValues>
            -3.5759946703910828e-01 3.0229985713958740e-01</leafValues></_>
        <_>
          <internalNodes>
            0 -1 33 -1010304116 30609633 994229068 -449141797
            -2011985225 -402521952 -6345806 -105076805</internalNodes>
          <leafValues>
            -7.7122610807418823e-01 1.4109089970588684e-01</leafValues></_>
        <_>
          <internalNodes>
            0 -1 48 -152118024 -646315550 232533596 -781094398
            1476378015 -159916290 -1344893330 -246974702</internalNodes>
          <leafValues>
            -2.6368555426597595e-01 4.2910924553871155e-01</leafValues></_>
        <_>
          <internalNodes>
            0 -1 8 -267643847 -609468265 1283563683 -1722308399
            -1296912228 -1429086136 850938648 268435456</internalNodes>
          <leafValues>
            -3.7434631586074829e-01 2.8428643941879272e-01</leafValues></_>
        <_>
          <internalNodes>
            0 -1 126 -524317 2013265919 2147276644 -638128769 -671746144
            -176849412 -142629990 -34282550</internalNodes>
          <leafValues>
            -2.4373941123485565e-01 4.0382716059684753e-01</leafValues></_>
        <_>
          <internalNodes>
            0 -1 65 -1851739983 -115035819 819967995 -1860201754
            -247291169 -264238965 -1041665905 -2106978867</internalNodes>
          <leafValues>
            -3.2866972684860229e-01 3.0753874778747559e-01</leafValues></_>
        <_>
          <internalNodes>
            0 -1 58 -777567094 440606942 -1843394788 -1119763434
            -651499089 -1185140340 -1150264458 358451030</internalNodes>
          <leafValues>
            -3.6684447526931763e-01 3.0225181579589844e-01</leafValues></_></weakClassifiers></_>
    <!-- stage 12 -->
    <_>
      <maxWeakCount>15</maxWeakCount>
      <stageThreshold>-1.6450912952423096e+00</stageThreshold>
      <weakClassifiers>
        <_>
          <internalNodes>
            0 -1 28 -1868187139 -537972741 -687477163 -1561 -1278004464
            -112111600 1595240992 2145254168</internalNodes>
          <leafValues>
            -6.0441106557846069e-01 1.6190286725759506e-02</leafValues></_>
        <_>
          <internalNodes>
            0 -1 124 -3148909 -78653009 302753860 -144192953 -671824
            -73211165 -84952150 -143459677</internalNodes>
          <leafValues>
            -3.1717142462730408e-01 3.3742114901542664e-01</leafValues></_>
        <_>
          <internalNodes>
            0 -1 57 -794238290 -750091582 -1745585539 -713743310
            -403046657 -138430467 -42467329 -637833473</internalNodes>
          <leafValues>
            -2.3349721729755402e-01 4.1501277685165405e-01</leafValues></_>
        <_>
          <internalNodes>
            0 -1 128 -61950017 -237726727 -1500866560 -2071146156
            -404216849 -1047347540 2031385805 147630728</internalNodes>
          <leafValues>
            -5.1775372028350830e-01 1.9339935481548309e-01</leafValues></_>
        <_>
          <internalNodes>
            0 -1 18 1784578278 -3988690 46540686 -1913673138 839876745
            -587194224 -1162953909 -11799041</internalNodes>
          <leafValues>
            -5.3672808408737183e-01 2.1363975107669830e-01</leafValues></_>
        <_>
          <internalNodes>
            0 -1 109 -27271280 2133327106 2061696928 1527773088
            -580911160 1146601424 -1224217174 -543162449</internalNodes>
          <leafValues>
            -2.3243938386440277e-01 5.0368225574493408e-01</leafValues></_>
        <_>
          <internalNodes>
            0 -1 74 899404796 1008017619 -267669092 745752063
            -1592004364 -1465235068 -97780824 687603667</internalNodes>
          <leafValues>
            -4.9613761901855469e-01 2.1404010057449341e-01</leafValues></_>
        <_>
          <internalNodes>
            0 -1 105 -204218424 1072692975 632922144 -201458049
            -1375747956 2004320223 -1969428822 842781695</internalNodes>
          <leafValues>
            -2.8316536545753479e-01 3.4797278046607971e-01</leafValues></_>
        <_>
          <internalNodes>
            0 -1 84 -665911053 -643944065 499503583 -5649974 -536363045
            -2088745984 -1920797713 -689879413</internalNodes>
          <leafValues>
            -3.1853601336479187e-01 3.2648205757141113e-01</leafValues></_>
        <_>
          <internalNodes>
            0 -1 35 -287125810 -615872310 -551948031 -773989920
            1401548955 -423681909 1578342795 -140517536</internalNodes>
          <leafValues>
            -3.4707298874855042e-01 2.9228597879409790e-01</leafValues></_>
        <_>
          <internalNodes>
            0 -1 79 2078131176 1367069416 -1073708544 -1344806760
            1851513820 1594362776 -1154157654 2132507531</internalNodes>
          <leafValues>
            -3.6925819516181946e-01 2.8729459643363953e-01</leafValues></_>
        <_>
          <internalNodes>
            0 -1 90 937244602 -1648831304 -1859948196 -565390852
            -48188508 -1717829480 805797881 501155228</internalNodes>
          <leafValues>
            -4.6555602550506592e-01 2.0124976336956024e-01</leafValues></_>
        <_>
          <internalNodes>
            0 -1 22 -1847627265 2076459340 -934243952 66332031 -19156463
            -2043412475 1125446308 1500848720</internalNodes>
          <leafValues>
            -4.3364903330802917e-01 2.1818038821220398e-01</leafValues></_>
        <_>
          <internalNodes>
            0 -1 97 -127483264 -12877968 1382940583 -1019609093
            -1216888182 -1644204033 578077434 -147980321</internalNodes>
          <leafValues>
            -2.6040875911712646e-01 3.6622157692909241e-01</leafValues></_>
        <_>
          <internalNodes>
            0 -1 25 439276287 -153347449 -1705850834 -1090749186
            142545462 -736683625 -945317129 -277618057</internalNodes>
          <leafValues>
            -3.5839879512786865e-01 2.6954668760299683e-01</leafValues></_></weakClassifiers></_>
    <!-- stage 13 -->
    <_>
      <maxWeakCount>15</maxWeakCount>
      <stageThreshold>-1.5383268594741821e+00</stageThreshold>
      <weakClassifiers>
        <_>
          <internalNodes>
            0 -1 2 -487588865 -268436201 -682106913 -3201 -5 -267902
            -4721413 -22020357</internalNodes>
          <leafValues>
            -5.3989070653915405e-01 1.2423840910196304e-01</leafValues></_>
        <_>
          <internalNodes>
            0 -1 27 1458520063 1593834367 -670119105 1048491903
            -893555841 -17482913 -1165526153 -8946825</internalNodes>
          <leafValues>
            -3.6549684405326843e-01 3.2298541069030762e-01</leafValues></_>
        <_>
          <internalNodes>
            0 -1 96 1870659328 -604004929 -1729303041 -53492625
            -302514432 -337523745 -20284162 -554963745</internalNodes>
          <leafValues>
            -6.5253901481628418e-01 1.7497350275516510e-01</leafValues></_>
        <_>
          <internalNodes>
            0 -1 129 835557375 -1430222092 -1564113505 616866462
            -29361158 -287300881 -20005906 1855883390</internalNodes>
          <leafValues>
            -3.7860453128814697e-01 3.0832821130752563e-01</leafValues></_>
        <_>
          <internalNodes>
            0 -1 71 -1801197334 -942709764 19055232 2009008180
            -758775818 1083722066 296597474 2009026510</internalNodes>
          <leafValues>
            -3.5005363821983337e-01 2.8750422596931458e-01</leafValues></_>
        <_>
          <internalNodes>
            0 -1 121 -67896336 -73290809 -1559016941 -678632820
            -100698320 -880678755 -89969686 2109078116</internalNodes>
          <leafValues>
            -4.9566400051116943e-01 1.7468307912349701e-01</leafValues></_>
        <_>
          <internalNodes>
            0 -1 80 -155716880 857571360 -919105528 -616611792
            -113255596 1934726657 -21505318 857210103</internalNodes>
          <leafValues>
            -3.3779764175415039e-01 2.7109521627426147e-01</leafValues></_>
        <_>
          <internalNodes>
            0 -1 30 1141308415 -132180615 -384312417 -274610722
            193723838 -1899942915 -624632371 1218592982</internalNodes>
          <leafValues>
            -3.4956872463226318e-01 2.5125163793563843e-01</leafValues></_>
        <_>
          <internalNodes>
            0 -1 106 -1592696374 861815751 948033488 688900239 856480008
            814682542 1694882318 829943807</internalNodes>
          <leafValues>
            -2.9815968871116638e-01 2.8584289550781250e-01</leafValues></_>
        <_>
          <internalNodes>
            0 -1 95 -663420912 -4695894 -615613089 -69090305 -2133995521
            -1146216230 -771561543 1862453770</internalNodes>
          <leafValues>
            -4.7064593434333801e-01 1.9241170585155487e-01</leafValues></_>
        <_>
          <internalNodes>
            0 -1 16 1789354043 944677894 -594655829 -134373226
            -835804465 -57736765 1896710316 1356168372</internalNodes>
          <leafValues>
            -3.8040709495544434e-01 2.1293537318706512e-01</leafValues></_>
        <_>
          <internalNodes>
            0 -1 91 -83902593 -1459785861 -65539 -1711817512 -131075
            -1426063361 -2228291 -1931624465</internalNodes>
          <leafValues>
            -2.4839873611927032e-01 3.5577225685119629e-01</leafValues></_>
        <_>
          <internalNodes>
            0 -1 73 -1043574019 -1781250052 -484786158 -1644420664
            -1690828584 1326489676 -340784968 1003101336</internalNodes>
          <leafValues>
            -4.9141973257064819e-01 1.7657600343227386e-01</leafValues></_>
        <_>
          <internalNodes>
            0 -1 59 -53699508 399043894 -84085034 -775511330 -922975156
            1961635805 251322078 -1290320390</internalNodes>
          <leafValues>
            -2.8480398654937744e-01 3.0618938803672791e-01</leafValues></_>
        <_>
          <internalNodes>
            0 -1 31 530779402 227836119 633467063 776860069 -134194889
            1819595042 -137203375 106751012</internalNodes>
          <leafValues>
            -7.3811161518096924e-01 1.0542824119329453e-01</leafValues></_></weakClassifiers></_>
    <!-- stage 14 -->
    <_>
      <maxWeakCount>18</maxWeakCount>
      <stageThreshold>-1.5444270372390747e+00</stageThreshold>
      <weakClassifiers>
        <_>
          <internalNodes>
            0 -1 29 2132278783 -268485633 1574220767 -536870913 -7898249
            -37785739 -3293185 -8388737</internalNodes>
          <leafValues>
            -4.2739501595497131e-01 3.1278422474861145e-01</leafValues></_>
        <_>
          <internalNodes>
            0 -1 0 -319815681 -34079297 -285212929 -168560769 -671089409
            -16845953 -33554433 -1064509254</internalNodes>
          <leafValues>
            -2.6840466260910034e-01 3.5373234748840332e-01</leafValues></_>
        <_>
          <internalNodes>
            0 -1 46 -139362817 535679767 -171576354 -287515394
            2072081092 2110555520 918368958 816627644</internalNodes>
          <leafValues>
            -5.2735120058059692e-01 1.6926036775112152e-01</leafValues></_>
        <_>
          <internalNodes>
            0 -1 111 -134226405 1811774079 -1369941761 1999945979
            -1275613184 1715890701 -1295272993 643796602</internalNodes>
          <leafValues>
            -4.1445779800415039e-01 2.0991869270801544e-01</leafValues></_>
        <_>
          <internalNodes>
            0 -1 6 1833905838 -42610215 -141307401 473988547 -67502081
            -79650800 -1617887237 -1403956911</internalNodes>
          <leafValues>
            -6.7852103710174561e-01 1.1748185753822327e-01</leafValues></_>
        <_>
          <internalNodes>
            0 -1 26 986791101 -69596886 -1014407187 2010843129
            1057353988 -109635328 240216849 2138528624</internalNodes>
          <leafValues>
            -3.8620209693908691e-01 2.3298595845699310e-01</leafValues></_>
        <_>
          <internalNodes>
            0 -1 102 -1147677829 -1824314124 1284458652 -104877828
            -1314800707 -1464530772 -1044908563 -1616906004</internalNodes>
          <leafValues>
            -2.8933933377265930e-01 2.9227936267852783e-01</leafValues></_>
        <_>
          <internalNodes>
            0 -1 108 -25166160 285408136 -18661808 321367394 1057929676
            772898708 2121266394 350730235</internalNodes>
          <leafValues>
            -2.6186156272888184e-01 3.1305295228958130e-01</leafValues></_>
        <_>
          <internalNodes>
            0 -1 78 1594545288 1934596908 520405632 562416424 1579021276
            1484875790 822377226 1373599567</internalNodes>
          <leafValues>
            -4.5489796996116638e-01 1.7278812825679779e-01</leafValues></_>
        <_>
          <internalNodes>
            0 -1 119 1792964349 177236843 -2063403636 -1529417150
            -148020482 -2079193075 -163008564 1289546938</internalNodes>
          <leafValues>
            -4.2407783865928650e-01 2.0605660974979401e-01</leafValues></_>
        <_>
          <internalNodes>
            0 -1 86 -116199248 860825132 -328101960 -1321455540
            -1454235328 1521561690 -1195351372 -1049670316</internalNodes>
          <leafValues>
            -3.5354930162429810e-01 2.1523599326610565e-01</leafValues></_>
        <_>
          <internalNodes>
            0 -1 123 -243441792 -483691379 -1593355635 1912808123
            -268590688 -324947872 -336876684 1550896864</internalNodes>
          <leafValues>
            -5.6690567731857300e-01 1.4577354490756989e-01</leafValues></_>
        <_>
          <internalNodes>
            0 -1 122 -955018989 -2101198629 844157699 -1584201622
            -1508588320 -2143215438 1346408983 554767016</internalNodes>
          <leafValues>
            -3.5753607749938965e-01 2.2017490863800049e-01</leafValues></_>
        <_>
          <internalNodes>
            0 -1 36 -368123326 -422674202 994771586 -574136246
            -745299205 -260008785 689174716 -136347234</internalNodes>
          <leafValues>
            -3.6975234746932983e-01 2.1238867938518524e-01</leafValues></_>
        <_>
          <internalNodes>
            0 -1 92 -51659776 -845244161 -2108783361 -604444422
            1220198361 -1964318471 -292953553 -2090147898</internalNodes>
          <leafValues>
            -4.0879860520362854e-01 1.9821190834045410e-01</leafValues></_>
        <_>
          <internalNodes>
            0 -1 49 -770285342 -984861726 -1743638270 -390223694
            1795199942 -866631584 -371658481 1097190266</internalNodes>
          <leafValues>
            -4.3412387371063232e-01 2.0113550126552582e-01</leafValues></_>
        <_>
          <internalNodes>
            0 -1 87 1442299389 1970709550 -1125228648 856473208
            1599616250 242778061 1159525852 -1347483714</internalNodes>
          <leafValues>
            -2.4580234289169312e-01 3.3492577075958252e-01</leafValues></_>
        <_>
          <internalNodes>
            0 -1 1 486340476 -1162591350 -1072758781 -892043050
            -654899009 -71352246 1322025001 955578844</internalNodes>
          <leafValues>
            -6.4052236080169678e-01 1.1072514206171036e-01</leafValues></_></weakClassifiers></_></stages>
  <features>
    <_>
      <rect>
        0 0 1 3</rect></_>
    <_>
      <rect>
        0 0 1 4</rect></_>
    <_>
      <rect>
        0 0 2 2</rect></_>
    <_>
      <rect>
        0 0 2 3</rect></_>
    <_>
      <rect>
        0 0 3 2</rect></_>
    <_>
      <rect>
        0 0 3 3</rect></_>
    <_>
      <rect>
        0 0 4 2</rect></_>
    <_>
      <rect>
        0 0 4 3</rect></_>
    <_>
      <rect>
        0 1 1 1</rect></_>
    <_>
      <rect>
        0 1 2 2</rect></_>
    <_>
      <rect>
        0 1 2 4</rect></_>
    <_>
      <rect>
        0 1 3 1</rect></_>
    <_>
      <rect>
        0 1 4 1</rect></_>
    <_>
      <rect>
        0 1 4 3</rect></_>
    <_>
      <rect>
        0 1 4 4</rect></_>
    <_>
      <rect>
        0 2 2 1</rect></_>
    <_>
      <rect>
        0 3 1 2</rect></_>
    <_>
      <rect>
        0 3 2 2</rect></_>
    <_>
      <rect>
        0 3 4 2</rect></_>
    <_>
      <rect>
        0 4 1 3</rect></_>
    <_>
      <rect>
        0 4 2 3</rect></_>
    <_>
      <rect>
        0 5 1 1</rect></_>
    <_>
      <rect>
        0 6 1 2</rect></_>
    <_>
      <rect>
        0 7 1 2</rect></_>
    <_>
      <rect>
        0 7 3 2</rect></_>
    <_>
      <rect>
        0 8 2 1</rect></_>
    <_>
      <rect>
        0 9 1 1</rect></_>
    <_>
      <rect>
        0 9 2 1</rect></_>
    <_>
      <rect>
        0 10 1 1</rect></_>
    <_>
      <rect>
        0 10 2 1</rect></_>
    <_>
      <rect>
        1 0 2 1</rect></_>
    <_>
      <rect>
        1 0 4 1</rect></_>
    <_>
      <rect>
        1 1 3 1</rect></_>
    <_>
      <rect>
        1 1 4 3</rect></_>
    <_>
      <rect>
        1 1 4 4</rect></_>
    <_>
      <rect>
        1 2 1 2</rect></_>
    <_>
      <rect>
        1 3 1 1</rect></_>
    <_>
      <rect>
        1 3 4 2</rect></_>
    <_>
      <rect>
        1 4 1 1</rect></_>
    <_>
      <rect>
        1 5 1 1</rect></_>
    <_>
      <rect>
        1 6 1 1</rect></_>
    <_>
      <rect>
        1 7 1 1</rect></_>
    <_>
      <rect>
        1 7 3 2</rect></_>
    <_>
      <rect>
        1 9 4 1</rect></_>
    <_>
      <rect>
        1 10 1 1</rect></_>
    <_>
      <rect>
        1 10 2 1</rect></_>
    <_>
      <rect>
        1 10 4 1</rect></_>
    <_>
      <rect>
        2 2 1 1</rect></_>
    <_>
      <rect>
        2 3 1 1</rect></_>
    <_>
      <rect>
        2 5 2 2</rect></_>
    <_>
      <rect>
        2 6 2 1</rect></_>
    <_>
      <rect>
        2 7 1 1</rect></_>
    <_>
      <rect>
        2 8 1 1</rect></_>
    <_>
      <rect>
        2 9 1 1</rect></_>
    <_>
      <rect>
        2 10 1 1</rect></_>
    <_>
      <rect>
        3 1 1 1</rect></_>
    <_>
      <rect>
        3 1 3 1</rect></_>
    <_>
      <rect>
        3 2 1 1</rect></_>
    <_>
      <rect>
        3 3 2 2</rect></_>
    <_>
      <rect>
        3 7 1 1</rect></_>
    <_>
      <rect>
        3 8 1 1</rect></_>
    <_>
      <rect>
        3 9 1 1</rect></_>
    <_>
      <rect>
        3 9 3 1</rect></_>
    <_>
      <rect>
        3 10 2 1</rect></_>
    <_>
      <rect>
        3 10 3 1</rect></_>
    <_>
      <rect>
        4 0 1 1</rect></_>
    <_>
      <rect>
        4 0 2 1</rect></_>
    <_>
      <rect>
        4 0 3 1</rect></_>
    <_>
      <rect>
        4 0 3 2</rect></_>
    <_>
      <rect>
        4 1 1 1</rect></_>
    <_>
      <rect>
        4 1 3 1</rect></_>
    <_>
      <rect>
        4 2 2 2</rect></_>
    <_>
      <rect>
        4 4 3 3</rect></_>
    <_>
      <rect>
        4 9 1 1</rect></_>
    <_>
      <rect>
        4 9 3 1</rect></_>
    <_>
      <rect>
        4 10 3 1</rect></_>
    <_>
      <rect>
        5 0 1 1</rect></_>
    <_>
      <rect>
        5 1 1 1</rect></_>
    <_>
      <rect>
        5 3 2 2</rect></_>
    <_>
      <rect>
        5 4 2 2</rect></_>
    <_>
      <rect>
        5 7 2 1</rect></_>
    <_>
      <rect>
        5 8 1 1</rect></_>
    <_>
      <rect>
        5 9 1 1</rect></_>
    <_>
      <rect>
        5 10 1 1</rect></_>
    <_>
      <rect>
        6 0 1 1</rect></_>
    <_>
      <rect>
        6 1 2 1</rect></_>
    <_>
      <rect>
        6 3 1 1</rect></_>
    <_>
      <rect>
        6 7 1 1</rect></_>
    <_>
      <rect>
        6 8 1 1</rect></_>
    <_>
      <rect>
        6 9 2 1</rect></_>
    <_>
      <rect>
        6 10 1 1</rect></_>
    <_>
      <rect>
        6 10 2 1</rect></_>
    <_>
      <rect>
        7 0 2 2</rect></_>
    <_>
      <rect>
        7 0 2 3</rect></_>
    <_>
      <rect>
        7 0 2 4</rect></_>
    <_>
      <rect>
        7 1 1 1</rect></_>
    <_>
      <rect>
        7 1 2 2</rect></_>
    <_>
      <rect>
        7 2 1 1</rect></_>
    <_>
      <rect>
        7 3 1 1</rect></_>
    <_>
      <rect>
        7 3 2 3</rect></_>
    <_>
      <rect>
        7 4 2 3</rect></_>
    <_>
      <rect>
        7 7 2 2</rect></_>
    <_>
      <rect>
        7 9 1 1</rect></_>
    <_>
      <rect>
        7 10 2 1</rect></_>
    <_>
      <rect>
        8 2 1 1</rect></_>
    <_>
      <rect>
        8 3 1 1</rect></_>
    <_>
      <rect>
        8 3 1 2</rect></_>
    <_>
      <rect>
        8 4 1 1</rect></_>
    <_>
      <rect>
        8 6 1 1</rect></_>
    <_>
      <rect>
        8 7 1 1</rect></_>
    <_>
      <rect>
        9 0 1 3</rect></_>
    <_>
      <rect>
        9 2 1 1</rect></_>
    <_>
      <rect>
        9 3 1 1</rect></_>
    <_>
      <rect>
        9 3 1 2</rect></_>
    <_>
      <rect>
        9 4 1 1</rect></_>
    <_>
      <rect>
        9 4 1 2</rect></_>
    <_>
      <rect>
        9 5 1 1</rect></_>
    <_>
      <rect>
        9 6 1 1</rect></_>
    <_>
      <rect>
        9 7 1 1</rect></_>
    <_>
      <rect>
        9 10 1 1</rect></_>
    <_>
      <rect>
        10 0 1 3</rect></_>
    <_>
      <rect>
        10 0 1 4</rect></_>
    <_>
      <rect>
        10 1 1 1</rect></_>
    <_>
      <rect>
        10 2 1 3</rect></_>
    <_>
      <rect>
        10 3 1 2</rect></_>
    <_>
      <rect>
        10 4 1 1</rect></_>
    <_>
      <rect>
        10 4 1 2</rect></_>
    <_>
      <rect>
        10 4 1 3</rect></_>
    <_>
      <rect>
        10 7 1 2</rect></_>
    <_>
      <rect>
        10 10 1 1</rect></_></features></cascade>
</opencv_storage>
